<?xml version="1.0"?>
<opencv_storage>
<cascade>
  <stageType>BOOST</stageType>
  <featureType>HAAR</featureType>
  <height>50</height>
  <width>50</width>
  <stageParams>
    <boostType>GAB</boostType>
    <minHitRate>9.9900001287460327e-01</minHitRate>
    <maxFalseAlarm>5.0000000000000000e-01</maxFalseAlarm>
    <weightTrimRate>9.4999998807907104e-01</weightTrimRate>
    <maxDepth>1</maxDepth>
    <maxWeakCount>100</maxWeakCount></stageParams>
  <featureParams>
    <maxCatCount>0</maxCatCount>
    <featSize>1</featSize>
    <mode>BASIC</mode></featureParams>
  <stageNum>20</stageNum>
  <stages>
    <!-- stage 0 -->
    <_>
      <maxWeakCount>5</maxWeakCount>
      <stageThreshold>-2.9906472563743591e-01</stageThreshold>
      <weakClassifiers>
        <_>
          <internalNodes>
            0 -1 125 1.5633454313501716e-03</internalNodes>
          <leafValues>
            -1.2244898080825806e-01 9.2156863212585449e-01</leafValues></_>
        <_>
          <internalNodes>
            0 -1 38 1.5542283654212952e-02</internalNodes>
          <leafValues>
            -2.8024026751518250e-01 8.8681286573410034e-01</leafValues></_>
        <_>
          <internalNodes>
            0 -1 92 -3.9285267121158540e-04</internalNodes>
          <leafValues>
            9.6711766719818115e-01 -2.2779822349548340e-01</leafValues></_>
        <_>
          <internalNodes>
            0 -1 118 -3.6165455821901560e-04</internalNodes>
          <leafValues>
            9.6555763483047485e-01 -3.2018414139747620e-01</leafValues></_>
        <_>
          <internalNodes>
            0 -1 131 1.6173454059753567e-04</internalNodes>
          <leafValues>
            -3.9241069555282593e-01 7.7813172340393066e-01</leafValues></_></weakClassifiers></_>
    <!-- stage 1 -->
    <_>
      <maxWeakCount>5</maxWeakCount>
      <stageThreshold>-1.9479002058506012e-01</stageThreshold>
      <weakClassifiers>
        <_>
          <internalNodes>
            0 -1 1 3.8411152362823486e-01</internalNodes>
          <leafValues>
            6.4912283420562744e-01 -8.2608693838119507e-01</leafValues></_>
        <_>
          <internalNodes>
            0 -1 11 -1.2238651514053345e-01</internalNodes>
          <leafValues>
            -7.4481165409088135e-01 6.1050319671630859e-01</leafValues></_>
        <_>
          <internalNodes>
            0 -1 84 4.0733013302087784e-03</internalNodes>
          <leafValues>
            -4.9634516239166260e-01 9.1347515583038330e-01</leafValues></_>
        <_>
          <internalNodes>
            0 -1 58 4.3733166530728340e-03</internalNodes>
          <leafValues>
            -4.2425245046615601e-01 7.8051006793975830e-01</leafValues></_>
        <_>
          <internalNodes>
            0 -1 132 1.4224839396774769e-03</internalNodes>
          <leafValues>
            -3.8326609134674072e-01 8.8239830732345581e-01</leafValues></_></weakClassifiers></_>
    <!-- stage 2 -->
    <_>
      <maxWeakCount>6</maxWeakCount>
      <stageThreshold>4.1581489145755768e-02</stageThreshold>
      <weakClassifiers>
        <_>
          <internalNodes>
            0 -1 18 -1.9176757335662842e-01</internalNodes>
          <leafValues>
            -8.4615385532379150e-01 6.7111110687255859e-01</leafValues></_>
        <_>
          <internalNodes>
            0 -1 85 -1.5421877615153790e-03</internalNodes>
          <leafValues>
            7.6893109083175659e-01 -3.7949508428573608e-01</leafValues></_>
        <_>
          <internalNodes>
            0 -1 12 8.1389490514993668e-03</internalNodes>
          <leafValues>
            -2.9430690407752991e-01 9.3915110826492310e-01</leafValues></_>
        <_>
          <internalNodes>
            0 -1 90 2.3708492517471313e-03</internalNodes>
          <leafValues>
            -3.9511448144912720e-01 7.3280352354049683e-01</leafValues></_>
        <_>
          <internalNodes>
            0 -1 35 2.0235106348991394e-03</internalNodes>
          <leafValues>
            -3.4053346514701843e-01 8.3409041166305542e-01</leafValues></_>
        <_>
          <internalNodes>
            0 -1 19 -2.1531519014388323e-03</internalNodes>
          <leafValues>
            9.2011415958404541e-01 -3.4799772500991821e-01</leafValues></_></weakClassifiers></_>
    <!-- stage 3 -->
    <_>
      <maxWeakCount>7</maxWeakCount>
      <stageThreshold>5.2909165620803833e-02</stageThreshold>
      <weakClassifiers>
        <_>
          <internalNodes>
            0 -1 70 1.0885932715609670e-03</internalNodes>
          <leafValues>
            6.2393164634704590e-01 -1.</leafValues></_>
        <_>
          <internalNodes>
            0 -1 17 3.9186985231935978e-03</internalNodes>
          <leafValues>
            -1.9608905911445618e-01 1.</leafValues></_>
        <_>
          <internalNodes>
            0 -1 106 -8.5702934302389622e-04</internalNodes>
          <leafValues>
            9.8379158973693848e-01 -2.1847218275070190e-01</leafValues></_>
        <_>
          <internalNodes>
            0 -1 103 -6.9549295585602522e-04</internalNodes>
          <leafValues>
            7.7978891134262085e-01 -3.0008465051651001e-01</leafValues></_>
        <_>
          <internalNodes>
            0 -1 59 -7.3161476757377386e-04</internalNodes>
          <leafValues>
            8.5794860124588013e-01 -3.2923936843872070e-01</leafValues></_>
        <_>
          <internalNodes>
            0 -1 39 4.4926805421710014e-03</internalNodes>
          <leafValues>
            -3.1573933362960815e-01 7.9979723691940308e-01</leafValues></_>
        <_>
          <internalNodes>
            0 -1 65 -7.7773828525096178e-04</internalNodes>
          <leafValues>
            8.6551082134246826e-01 -2.9127144813537598e-01</leafValues></_></weakClassifiers></_>
    <!-- stage 4 -->
    <_>
      <maxWeakCount>5</maxWeakCount>
      <stageThreshold>-2.7546706795692444e-01</stageThreshold>
      <weakClassifiers>
        <_>
          <internalNodes>
            0 -1 3 2.8674444183707237e-03</internalNodes>
          <leafValues>
            6.6519826650619507e-01 -9.1666668653488159e-01</leafValues></_>
        <_>
          <internalNodes>
            0 -1 83 4.4946987181901932e-03</internalNodes>
          <leafValues>
            -2.2466295957565308e-01 1.</leafValues></_>
        <_>
          <internalNodes>
            0 -1 88 8.8225677609443665e-03</internalNodes>
          <leafValues>
            -4.9887099862098694e-01 6.1701744794845581e-01</leafValues></_>
        <_>
          <internalNodes>
            0 -1 28 -3.3646449446678162e-02</internalNodes>
          <leafValues>
            9.8707520961761475e-01 -2.8465938568115234e-01</leafValues></_>
        <_>
          <internalNodes>
            0 -1 0 1.8007824197411537e-02</internalNodes>
          <leafValues>
            3.6784070730209351e-01 -8.4700459241867065e-01</leafValues></_></weakClassifiers></_>
    <!-- stage 5 -->
    <_>
      <maxWeakCount>6</maxWeakCount>
      <stageThreshold>1.7183233797550201e-01</stageThreshold>
      <weakClassifiers>
        <_>
          <internalNodes>
            0 -1 53 -1.9388711079955101e-03</internalNodes>
          <leafValues>
            -8.1818181276321411e-01 6.4192140102386475e-01</leafValues></_>
        <_>
          <internalNodes>
            0 -1 76 1.1242820881307125e-02</internalNodes>
          <leafValues>
            -2.1500852704048157e-01 9.3246179819107056e-01</leafValues></_>
        <_>
          <internalNodes>
            0 -1 130 -8.4609119221568108e-03</internalNodes>
          <leafValues>
            7.9267698526382446e-01 -3.1164053082466125e-01</leafValues></_>
        <_>
          <internalNodes>
            0 -1 9 -6.7449596826918423e-05</internalNodes>
          <leafValues>
            6.7512768507003784e-01 -4.1232740879058838e-01</leafValues></_>
        <_>
          <internalNodes>
            0 -1 47 1.2372020632028580e-02</internalNodes>
          <leafValues>
            -3.0881160497665405e-01 8.4796094894409180e-01</leafValues></_>
        <_>
          <internalNodes>
            0 -1 72 3.5630869679152966e-03</internalNodes>
          <leafValues>
            -3.0388113856315613e-01 7.7769905328750610e-01</leafValues></_></weakClassifiers></_>
    <!-- stage 6 -->
    <_>
      <maxWeakCount>6</maxWeakCount>
      <stageThreshold>-2.3174402117729187e-01</stageThreshold>
      <weakClassifiers>
        <_>
          <internalNodes>
            0 -1 77 -8.7451189756393433e-04</internalNodes>
          <leafValues>
            -8.2608693838119507e-01 6.4912283420562744e-01</leafValues></_>
        <_>
          <internalNodes>
            0 -1 25 5.5363512365147471e-04</internalNodes>
          <leafValues>
            -3.2550510764122009e-01 7.1706068515777588e-01</leafValues></_>
        <_>
          <internalNodes>
            0 -1 42 -1.0297852568328381e-03</internalNodes>
          <leafValues>
            8.6924117803573608e-01 -3.2054242491722107e-01</leafValues></_>
        <_>
          <internalNodes>
            0 -1 50 -6.0066441074013710e-03</internalNodes>
          <leafValues>
            7.6707637310028076e-01 -3.6559849977493286e-01</leafValues></_>
        <_>
          <internalNodes>
            0 -1 89 -1.6774406656622887e-02</internalNodes>
          <leafValues>
            9.2221587896347046e-01 -2.7409738302230835e-01</leafValues></_>
        <_>
          <internalNodes>
            0 -1 95 -2.6125044678337872e-04</internalNodes>
          <leafValues>
            -7.8646695613861084e-01 4.0487661957740784e-01</leafValues></_></weakClassifiers></_>
    <!-- stage 7 -->
    <_>
      <maxWeakCount>7</maxWeakCount>
      <stageThreshold>-3.8579630851745605e-01</stageThreshold>
      <weakClassifiers>
        <_>
          <internalNodes>
            0 -1 30 4.3212284799665213e-04</internalNodes>
          <leafValues>
            3.7037037312984467e-02 8.7412589788436890e-01</leafValues></_>
        <_>
          <internalNodes>
            0 -1 15 3.7875273264944553e-03</internalNodes>
          <leafValues>
            -2.0320601761341095e-01 6.9081252813339233e-01</leafValues></_>
        <_>
          <internalNodes>
            0 -1 60 -5.1361578516662121e-04</internalNodes>
          <leafValues>
            9.1496974229812622e-01 -2.2549077868461609e-01</leafValues></_>
        <_>
          <internalNodes>
            0 -1 27 2.2486085072159767e-03</internalNodes>
          <leafValues>
            -2.2863833606243134e-01 9.5639842748641968e-01</leafValues></_>
        <_>
          <internalNodes>
            0 -1 82 6.2552457675337791e-03</internalNodes>
          <leafValues>
            -2.2966280579566956e-01 8.9380222558975220e-01</leafValues></_>
        <_>
          <internalNodes>
            0 -1 105 4.8475628718733788e-03</internalNodes>
          <leafValues>
            -2.1800045669078827e-01 8.5043436288833618e-01</leafValues></_>
        <_>
          <internalNodes>
            0 -1 22 -1.4834094326943159e-03</internalNodes>
          <leafValues>
            8.8778620958328247e-01 -2.1185347437858582e-01</leafValues></_></weakClassifiers></_>
    <!-- stage 8 -->
    <_>
      <maxWeakCount>7</maxWeakCount>
      <stageThreshold>9.7038328647613525e-02</stageThreshold>
      <weakClassifiers>
        <_>
          <internalNodes>
            0 -1 96 -4.4341140892356634e-04</internalNodes>
          <leafValues>
            -6.1538463830947876e-01 6.4444446563720703e-01</leafValues></_>
        <_>
          <internalNodes>
            0 -1 79 2.9760913457721472e-03</internalNodes>
          <leafValues>
            -2.6143461465835571e-01 7.2928780317306519e-01</leafValues></_>
        <_>
          <internalNodes>
            0 -1 20 3.5346911317901686e-06</internalNodes>
          <leafValues>
            -3.8760393857955933e-01 5.7293373346328735e-01</leafValues></_>
        <_>
          <internalNodes>
            0 -1 51 3.6077503864362370e-06</internalNodes>
          <leafValues>
            -3.7732428312301636e-01 5.9737783670425415e-01</leafValues></_>
        <_>
          <internalNodes>
            0 -1 102 -2.9118405655026436e-04</internalNodes>
          <leafValues>
            -8.0417585372924805e-01 3.1176108121871948e-01</leafValues></_>
        <_>
          <internalNodes>
            0 -1 41 1.1333294969517738e-04</internalNodes>
          <leafValues>
            -4.2856705188751221e-01 7.0014268159866333e-01</leafValues></_>
        <_>
          <internalNodes>
            0 -1 10 4.0853731334209442e-03</internalNodes>
          <leafValues>
            -3.6477497220039368e-01 6.3168615102767944e-01</leafValues></_></weakClassifiers></_>
    <!-- stage 9 -->
    <_>
      <maxWeakCount>8</maxWeakCount>
      <stageThreshold>-3.4957763552665710e-01</stageThreshold>
      <weakClassifiers>
        <_>
          <internalNodes>
            0 -1 13 -1.2479671277105808e-03</internalNodes>
          <leafValues>
            -6.6666668653488159e-01 6.3876652717590332e-01</leafValues></_>
        <_>
          <internalNodes>
            0 -1 97 1.6521332785487175e-02</internalNodes>
          <leafValues>
            -2.2827851772308350e-01 8.0609530210494995e-01</leafValues></_>
        <_>
          <internalNodes>
            0 -1 121 5.8790703769773245e-04</internalNodes>
          <leafValues>
            -1.7657321691513062e-01 9.3247085809707642e-01</leafValues></_>
        <_>
          <internalNodes>
            0 -1 99 -1.4472873881459236e-02</internalNodes>
          <leafValues>
            -5.1500773429870605e-01 4.0700426697731018e-01</leafValues></_>
        <_>
          <internalNodes>
            0 -1 2 7.6808826997876167e-03</internalNodes>
          <leafValues>
            -3.4643051028251648e-01 6.7568427324295044e-01</leafValues></_>
        <_>
          <internalNodes>
            0 -1 43 9.0146655566059053e-05</internalNodes>
          <leafValues>
            -4.1277250647544861e-01 6.4982128143310547e-01</leafValues></_>
        <_>
          <internalNodes>
            0 -1 48 -1.0413157287985086e-03</internalNodes>
          <leafValues>
            6.8318420648574829e-01 -3.1947699189186096e-01</leafValues></_>
        <_>
          <internalNodes>
            0 -1 94 -2.4082759045995772e-04</internalNodes>
          <leafValues>
            -9.4130879640579224e-01 3.3102276921272278e-01</leafValues></_></weakClassifiers></_>
    <!-- stage 10 -->
    <_>
      <maxWeakCount>7</maxWeakCount>
      <stageThreshold>1.3467971980571747e-01</stageThreshold>
      <weakClassifiers>
        <_>
          <internalNodes>
            0 -1 63 -7.2033070027828217e-02</internalNodes>
          <leafValues>
            -5.8333331346511841e-01 6.2995594739913940e-01</leafValues></_>
        <_>
          <internalNodes>
            0 -1 116 1.0559774236753583e-03</internalNodes>
          <leafValues>
            -1.8071939051151276e-01 9.3061512708663940e-01</leafValues></_>
        <_>
          <internalNodes>
            0 -1 21 9.4404554693028331e-04</internalNodes>
          <leafValues>
            -1.6692818701267242e-01 8.7596106529235840e-01</leafValues></_>
        <_>
          <internalNodes>
            0 -1 40 -1.3501195237040520e-02</internalNodes>
          <leafValues>
            8.6205947399139404e-01 -2.3818831145763397e-01</leafValues></_>
        <_>
          <internalNodes>
            0 -1 74 -2.3079916834831238e-02</internalNodes>
          <leafValues>
            8.5028427839279175e-01 -2.5174432992935181e-01</leafValues></_>
        <_>
          <internalNodes>
            0 -1 127 -6.8425964855123311e-05</internalNodes>
          <leafValues>
            6.9210630655288696e-01 -2.6840692758560181e-01</leafValues></_>
        <_>
          <internalNodes>
            0 -1 112 2.9323471244424582e-04</internalNodes>
          <leafValues>
            -2.3676082491874695e-01 7.9689699411392212e-01</leafValues></_></weakClassifiers></_>
    <!-- stage 11 -->
    <_>
      <maxWeakCount>7</maxWeakCount>
      <stageThreshold>9.6366882324218750e-02</stageThreshold>
      <weakClassifiers>
        <_>
          <internalNodes>
            0 -1 78 -8.0632232129573822e-04</internalNodes>
          <leafValues>
            -4.0540540218353271e-01 6.7289721965789795e-01</leafValues></_>
        <_>
          <internalNodes>
            0 -1 61 2.7829222381114960e-02</internalNodes>
          <leafValues>
            -1.5656708180904388e-01 1.</leafValues></_>
        <_>
          <internalNodes>
            0 -1 64 -2.3137271404266357e-02</internalNodes>
          <leafValues>
            7.6021665334701538e-01 -2.0513203740119934e-01</leafValues></_>
        <_>
          <internalNodes>
            0 -1 109 4.9796402454376221e-03</internalNodes>
          <leafValues>
            -2.5650104880332947e-01 7.4260902404785156e-01</leafValues></_>
        <_>
          <internalNodes>
            0 -1 5 1.1448256671428680e-02</internalNodes>
          <leafValues>
            -3.2014679908752441e-01 6.8868976831436157e-01</leafValues></_>
        <_>
          <internalNodes>
            0 -1 134 2.8640331493079429e-06</internalNodes>
          <leafValues>
            -3.3792895078659058e-01 6.7519515752792358e-01</leafValues></_>
        <_>
          <internalNodes>
            0 -1 100 -2.3792858701199293e-03</internalNodes>
          <leafValues>
            9.4866228103637695e-01 -2.2989848256111145e-01</leafValues></_></weakClassifiers></_>
    <!-- stage 12 -->
    <_>
      <maxWeakCount>7</maxWeakCount>
      <stageThreshold>-4.5364227890968323e-01</stageThreshold>
      <weakClassifiers>
        <_>
          <internalNodes>
            0 -1 23 -6.4256507903337479e-04</internalNodes>
          <leafValues>
            -6.8493150174617767e-02 7.5280898809432983e-01</leafValues></_>
        <_>
          <internalNodes>
            0 -1 62 3.5018744529224932e-04</internalNodes>
          <leafValues>
            -1.0564912855625153e-01 1.</leafValues></_>
        <_>
          <internalNodes>
            0 -1 68 -2.6407971745356917e-04</internalNodes>
          <leafValues>
            6.6375428438186646e-01 -2.5349798798561096e-01</leafValues></_>
        <_>
          <internalNodes>
            0 -1 54 -5.6513992603868246e-04</internalNodes>
          <leafValues>
            7.3321437835693359e-01 -3.0175220966339111e-01</leafValues></_>
        <_>
          <internalNodes>
            0 -1 113 1.8467396497726440e-02</internalNodes>
          <leafValues>
            -2.5284710526466370e-01 8.8122028112411499e-01</leafValues></_>
        <_>
          <internalNodes>
            0 -1 49 3.8312347605824471e-03</internalNodes>
          <leafValues>
            -2.2753652930259705e-01 8.6693459749221802e-01</leafValues></_>
        <_>
          <internalNodes>
            0 -1 4 7.0244409143924713e-03</internalNodes>
          <leafValues>
            -3.3833730220794678e-01 5.9153562784194946e-01</leafValues></_></weakClassifiers></_>
    <!-- stage 13 -->
    <_>
      <maxWeakCount>8</maxWeakCount>
      <stageThreshold>-1.4897434413433075e-01</stageThreshold>
      <weakClassifiers>
        <_>
          <internalNodes>
            0 -1 75 1.1765685630962253e-03</internalNodes>
          <leafValues>
            6.0337555408477783e-01 -1.</leafValues></_>
        <_>
          <internalNodes>
            0 -1 46 -1.8974728882312775e-02</internalNodes>
          <leafValues>
            8.6720561981201172e-01 -2.2083398699760437e-01</leafValues></_>
        <_>
          <internalNodes>
            0 -1 34 1.5450300648808479e-02</internalNodes>
          <leafValues>
            -2.4959900975227356e-01 7.8637784719467163e-01</leafValues></_>
        <_>
          <internalNodes>
            0 -1 124 4.7173027996905148e-04</internalNodes>
          <leafValues>
            -2.0807738602161407e-01 9.2465615272521973e-01</leafValues></_>
        <_>
          <internalNodes>
            0 -1 8 -1.3194674625992775e-02</internalNodes>
          <leafValues>
            8.4807705879211426e-01 -2.0577877759933472e-01</leafValues></_>
        <_>
          <internalNodes>
            0 -1 37 -3.3529807114973664e-04</internalNodes>
          <leafValues>
            6.1686426401138306e-01 -2.9623866081237793e-01</leafValues></_>
        <_>
          <internalNodes>
            0 -1 55 -1.4165766537189484e-02</internalNodes>
          <leafValues>
            8.2940965890884399e-01 -2.4417994916439056e-01</leafValues></_>
        <_>
          <internalNodes>
            0 -1 45 2.5687906891107559e-02</internalNodes>
          <leafValues>
            -2.4074502289295197e-01 8.8383901119232178e-01</leafValues></_></weakClassifiers></_>
    <!-- stage 14 -->
    <_>
      <maxWeakCount>9</maxWeakCount>
      <stageThreshold>1.2874132394790649e-01</stageThreshold>
      <weakClassifiers>
        <_>
          <internalNodes>
            0 -1 135 1.1301935650408268e-02</internalNodes>
          <leafValues>
            6.5296804904937744e-01 -4.3750000000000000e-01</leafValues></_>
        <_>
          <internalNodes>
            0 -1 56 -3.4701053518801928e-03</internalNodes>
          <leafValues>
            9.0997439622879028e-01 -1.2331528961658478e-01</leafValues></_>
        <_>
          <internalNodes>
            0 -1 110 -3.4699128009378910e-03</internalNodes>
          <leafValues>
            -8.6459952592849731e-01 2.6066750288009644e-01</leafValues></_>
        <_>
          <internalNodes>
            0 -1 14 6.9154601078480482e-04</internalNodes>
          <leafValues>
            4.5865485072135925e-01 -4.0712901949882507e-01</leafValues></_>
        <_>
          <internalNodes>
            0 -1 98 -1.8949646619148552e-04</internalNodes>
          <leafValues>
            7.1929913759231567e-01 -2.8732475638389587e-01</leafValues></_>
        <_>
          <internalNodes>
            0 -1 136 -4.0175666799768806e-04</internalNodes>
          <leafValues>
            -7.4427336454391479e-01 3.2070216536521912e-01</leafValues></_>
        <_>
          <internalNodes>
            0 -1 108 -1.4369331300258636e-02</internalNodes>
          <leafValues>
            8.3057588338851929e-01 -2.5859868526458740e-01</leafValues></_>
        <_>
          <internalNodes>
            0 -1 36 -1.8650088459253311e-02</internalNodes>
          <leafValues>
            8.1598269939422607e-01 -2.2750338912010193e-01</leafValues></_>
        <_>
          <internalNodes>
            0 -1 87 8.1017962656915188e-05</internalNodes>
          <leafValues>
            4.2295894026756287e-01 -4.8810222744941711e-01</leafValues></_></weakClassifiers></_>
    <!-- stage 15 -->
    <_>
      <maxWeakCount>9</maxWeakCount>
      <stageThreshold>-1.7267493903636932e-01</stageThreshold>
      <weakClassifiers>
        <_>
          <internalNodes>
            0 -1 128 -6.5031585108954459e-05</internalNodes>
          <leafValues>
            8.6046510934829712e-01 1.4754098653793335e-01</leafValues></_>
        <_>
          <internalNodes>
            0 -1 119 -7.6895719394087791e-03</internalNodes>
          <leafValues>
            9.5190161466598511e-01 -1.1255997419357300e-01</leafValues></_>
        <_>
          <internalNodes>
            0 -1 52 5.6280149146914482e-04</internalNodes>
          <leafValues>
            -2.8505501151084900e-01 7.8504633903503418e-01</leafValues></_>
        <_>
          <internalNodes>
            0 -1 122 -5.7833455502986908e-03</internalNodes>
          <leafValues>
            8.8229739665985107e-01 -2.4162667989730835e-01</leafValues></_>
        <_>
          <internalNodes>
            0 -1 93 -5.5051520466804504e-03</internalNodes>
          <leafValues>
            7.8289991617202759e-01 -2.9979339241981506e-01</leafValues></_>
        <_>
          <internalNodes>
            0 -1 107 1.2447037734091282e-03</internalNodes>
          <leafValues>
            -2.5700882077217102e-01 8.9850628376007080e-01</leafValues></_>
        <_>
          <internalNodes>
            0 -1 114 -1.6702416178304702e-04</internalNodes>
          <leafValues>
            6.6315400600433350e-01 -3.9586019515991211e-01</leafValues></_>
        <_>
          <internalNodes>
            0 -1 115 -9.7864316776394844e-03</internalNodes>
          <leafValues>
            8.5231322050094604e-01 -2.4548660218715668e-01</leafValues></_>
        <_>
          <internalNodes>
            0 -1 101 -7.7899959869682789e-03</internalNodes>
          <leafValues>
            8.2127064466476440e-01 -2.5476357340812683e-01</leafValues></_></weakClassifiers></_>
    <!-- stage 16 -->
    <_>
      <maxWeakCount>8</maxWeakCount>
      <stageThreshold>5.8664023876190186e-02</stageThreshold>
      <weakClassifiers>
        <_>
          <internalNodes>
            0 -1 16 -6.6134484950453043e-04</internalNodes>
          <leafValues>
            -4.2105263471603394e-01 6.8075114488601685e-01</leafValues></_>
        <_>
          <internalNodes>
            0 -1 123 1.2969179806532338e-05</internalNodes>
          <leafValues>
            -2.4104127287864685e-01 6.9590008258819580e-01</leafValues></_>
        <_>
          <internalNodes>
            0 -1 31 9.1885728761553764e-03</internalNodes>
          <leafValues>
            -2.5963878631591797e-01 8.0857574939727783e-01</leafValues></_>
        <_>
          <internalNodes>
            0 -1 91 6.1218561313580722e-05</internalNodes>
          <leafValues>
            -3.8162818551063538e-01 5.9588676691055298e-01</leafValues></_>
        <_>
          <internalNodes>
            0 -1 44 -4.8140663420781493e-04</internalNodes>
          <leafValues>
            8.5609656572341919e-01 -2.5134468078613281e-01</leafValues></_>
        <_>
          <internalNodes>
            0 -1 104 8.6419349536299706e-03</internalNodes>
          <leafValues>
            -2.6824912428855896e-01 8.6275011301040649e-01</leafValues></_>
        <_>
          <internalNodes>
            0 -1 129 2.2445648210123181e-04</internalNodes>
          <leafValues>
            4.4729796051979065e-01 -6.7760109901428223e-01</leafValues></_>
        <_>
          <internalNodes>
            0 -1 32 3.5434759411145933e-06</internalNodes>
          <leafValues>
            -4.5704028010368347e-01 5.9860974550247192e-01</leafValues></_></weakClassifiers></_>
    <!-- stage 17 -->
    <_>
      <maxWeakCount>6</maxWeakCount>
      <stageThreshold>-7.8723862767219543e-02</stageThreshold>
      <weakClassifiers>
        <_>
          <internalNodes>
            0 -1 7 -2.9284087941050529e-04</internalNodes>
          <leafValues>
            -8.6666667461395264e-01 6.0169494152069092e-01</leafValues></_>
        <_>
          <internalNodes>
            0 -1 33 1.0961793122987729e-05</internalNodes>
          <leafValues>
            -2.4453924596309662e-01 8.7775260210037231e-01</leafValues></_>
        <_>
          <internalNodes>
            0 -1 73 1.2659794650971889e-02</internalNodes>
          <leafValues>
            -2.4417798221111298e-01 8.1543165445327759e-01</leafValues></_>
        <_>
          <internalNodes>
            0 -1 67 7.7108433470129967e-04</internalNodes>
          <leafValues>
            -2.5091192126274109e-01 8.3907598257064819e-01</leafValues></_>
        <_>
          <internalNodes>
            0 -1 71 -5.6537045165896416e-03</internalNodes>
          <leafValues>
            9.7018909454345703e-01 -2.3439411818981171e-01</leafValues></_>
        <_>
          <internalNodes>
            0 -1 133 8.0084842920769006e-05</internalNodes>
          <leafValues>
            5.1567965745925903e-01 -4.5031368732452393e-01</leafValues></_></weakClassifiers></_>
    <!-- stage 18 -->
    <_>
      <maxWeakCount>7</maxWeakCount>
      <stageThreshold>-2.9062864184379578e-01</stageThreshold>
      <weakClassifiers>
        <_>
          <internalNodes>
            0 -1 86 1.0506373364478350e-03</internalNodes>
          <leafValues>
            6.1016947031021118e-01 -1.</leafValues></_>
        <_>
          <internalNodes>
            0 -1 29 7.7415462583303452e-03</internalNodes>
          <leafValues>
            -2.2661367058753967e-01 8.6812818050384521e-01</leafValues></_>
        <_>
          <internalNodes>
            0 -1 6 7.8056715428829193e-03</internalNodes>
          <leafValues>
            -2.0849648118019104e-01 9.6596896648406982e-01</leafValues></_>
        <_>
          <internalNodes>
            0 -1 126 -2.4164897331502289e-04</internalNodes>
          <leafValues>
            -9.2307037115097046e-01 3.1492453813552856e-01</leafValues></_>
        <_>
          <internalNodes>
            0 -1 137 3.5725400084629655e-04</internalNodes>
          <leafValues>
            3.6872997879981995e-01 -5.5822354555130005e-01</leafValues></_>
        <_>
          <internalNodes>
            0 -1 80 -4.2294355807825923e-04</internalNodes>
          <leafValues>
            -6.3508021831512451e-01 4.0599012374877930e-01</leafValues></_>
        <_>
          <internalNodes>
            0 -1 24 -7.5491273310035467e-04</internalNodes>
          <leafValues>
            6.0784327983856201e-01 -4.5073279738426208e-01</leafValues></_></weakClassifiers></_>
    <!-- stage 19 -->
    <_>
      <maxWeakCount>8</maxWeakCount>
      <stageThreshold>1.1287336051464081e-01</stageThreshold>
      <weakClassifiers>
        <_>
          <internalNodes>
            0 -1 81 -2.4263678491115570e-01</internalNodes>
          <leafValues>
            -1. 5.9663867950439453e-01</leafValues></_>
        <_>
          <internalNodes>
            0 -1 26 -1.5644750092178583e-03</internalNodes>
          <leafValues>
            9.2775577306747437e-01 -2.0622558891773224e-01</leafValues></_>
        <_>
          <internalNodes>
            0 -1 69 -6.0917646624147892e-04</internalNodes>
          <leafValues>
            8.6829102039337158e-01 -2.5606641173362732e-01</leafValues></_>
        <_>
          <internalNodes>
            0 -1 117 1.7229010118171573e-03</internalNodes>
          <leafValues>
            -2.0088045299053192e-01 1.</leafValues></_>
        <_>
          <internalNodes>
            0 -1 120 -3.3678596373647451e-03</internalNodes>
          <leafValues>
            1. -2.0756711065769196e-01</leafValues></_>
        <_>
          <internalNodes>
            0 -1 111 -1.0375184938311577e-03</internalNodes>
          <leafValues>
            9.3539685010910034e-01 -1.7187273502349854e-01</leafValues></_>
        <_>
          <internalNodes>
            0 -1 57 -6.8687956081703305e-04</internalNodes>
          <leafValues>
            8.5412806272506714e-01 -2.1378313004970551e-01</leafValues></_>
        <_>
          <internalNodes>
            0 -1 66 -2.1477823611348867e-04</internalNodes>
          <leafValues>
            7.7263009548187256e-01 -2.7125284075737000e-01</leafValues></_></weakClassifiers></_></stages>
  <features>
    <_>
      <rects>
        <_>
          0 0 50 2 -1.</_>
        <_>
          25 0 25 2 2.</_></rects>
      <tilted>0</tilted></_>
    <_>
      <rects>
        <_>
          0 1 38 47 -1.</_>
        <_>
          19 1 19 47 2.</_></rects>
      <tilted>0</tilted></_>
    <_>
      <rects>
        <_>
          0 2 8 26 -1.</_>
        <_>
          0 2 4 13 2.</_>
        <_>
          4 15 4 13 2.</_></rects>
      <tilted>0</tilted></_>
    <_>
      <rects>
        <_>
          0 5 42 3 -1.</_>
        <_>
          0 6 42 1 3.</_></rects>
      <tilted>0</tilted></_>
    <_>
      <rects>
        <_>
          0 10 6 38 -1.</_>
        <_>
          0 29 6 19 2.</_></rects>
      <tilted>0</tilted></_>
    <_>
      <rects>
        <_>
          0 10 18 39 -1.</_>
        <_>
          6 10 6 39 3.</_></rects>
      <tilted>0</tilted></_>
    <_>
      <rects>
        <_>
          0 12 12 16 -1.</_>
        <_>
          4 12 4 16 3.</_></rects>
      <tilted>0</tilted></_>
    <_>
      <rects>
        <_>
          0 22 1 3 -1.</_>
        <_>
          0 23 1 1 3.</_></rects>
      <tilted>0</tilted></_>
    <_>
      <rects>
        <_>
          0 30 18 20 -1.</_>
        <_>
          6 30 6 20 3.</_></rects>
      <tilted>0</tilted></_>
    <_>
      <rects>
        <_>
          1 0 2 11 -1.</_>
        <_>
          2 0 1 11 2.</_></rects>
      <tilted>0</tilted></_>
    <_>
      <rects>
        <_>
          1 0 6 40 -1.</_>
        <_>
          1 0 3 20 2.</_>
        <_>
          4 20 3 20 2.</_></rects>
      <tilted>0</tilted></_>
    <_>
      <rects>
        <_>
          1 0 44 21 -1.</_>
        <_>
          23 0 22 21 2.</_></rects>
      <tilted>0</tilted></_>
    <_>
      <rects>
        <_>
          1 22 18 8 -1.</_>
        <_>
          7 22 6 8 3.</_></rects>
      <tilted>0</tilted></_>
    <_>
      <rects>
        <_>
          2 5 23 2 -1.</_>
        <_>
          2 6 23 1 2.</_></rects>
      <tilted>0</tilted></_>
    <_>
      <rects>
        <_>
          2 39 10 9 -1.</_>
        <_>
          2 42 10 3 3.</_></rects>
      <tilted>0</tilted></_>
    <_>
      <rects>
        <_>
          3 7 21 8 -1.</_>
        <_>
          3 11 21 4 2.</_></rects>
      <tilted>0</tilted></_>
    <_>
      <rects>
        <_>
          3 39 3 11 -1.</_>
        <_>
          4 39 1 11 3.</_></rects>
      <tilted>0</tilted></_>
    <_>
      <rects>
        <_>
          4 1 10 14 -1.</_>
        <_>
          4 1 5 7 2.</_>
        <_>
          9 8 5 7 2.</_></rects>
      <tilted>0</tilted></_>
    <_>
      <rects>
        <_>
          4 4 46 34 -1.</_>
        <_>
          4 21 46 17 2.</_></rects>
      <tilted>0</tilted></_>
    <_>
      <rects>
        <_>
          4 13 6 18 -1.</_>
        <_>
          4 13 3 9 2.</_>
        <_>
          7 22 3 9 2.</_></rects>
      <tilted>0</tilted></_>
    <_>
      <rects>
        <_>
          4 15 2 4 -1.</_>
        <_>
          5 15 1 4 2.</_></rects>
      <tilted>0</tilted></_>
    <_>
      <rects>
        <_>
          4 19 17 2 -1.</_>
        <_>
          4 20 17 1 2.</_></rects>
      <tilted>0</tilted></_>
    <_>
      <rects>
        <_>
          6 43 18 4 -1.</_>
        <_>
          6 43 9 2 2.</_>
        <_>
          15 45 9 2 2.</_></rects>
      <tilted>0</tilted></_>
    <_>
      <rects>
        <_>
          7 0 9 46 -1.</_>
        <_>
          7 23 9 23 2.</_></rects>
      <tilted>0</tilted></_>
    <_>
      <rects>
        <_>
          7 1 15 2 -1.</_>
        <_>
          12 1 5 2 3.</_></rects>
      <tilted>0</tilted></_>
    <_>
      <rects>
        <_>
          7 1 7 10 -1.</_>
        <_>
          7 6 7 5 2.</_></rects>
      <tilted>0</tilted></_>
    <_>
      <rects>
        <_>
          7 12 6 18 -1.</_>
        <_>
          9 12 2 18 3.</_></rects>
      <tilted>0</tilted></_>
    <_>
      <rects>
        <_>
          7 20 11 6 -1.</_>
        <_>
          7 22 11 2 3.</_></rects>
      <tilted>0</tilted></_>
    <_>
      <rects>
        <_>
          7 20 38 21 -1.</_>
        <_>
          7 27 38 7 3.</_></rects>
      <tilted>0</tilted></_>
    <_>
      <rects>
        <_>
          7 25 12 18 -1.</_>
        <_>
          11 25 4 18 3.</_></rects>
      <tilted>0</tilted></_>
    <_>
      <rects>
        <_>
          7 33 6 11 -1.</_>
        <_>
          10 33 3 11 2.</_></rects>
      <tilted>0</tilted></_>
    <_>
      <rects>
        <_>
          7 34 18 8 -1.</_>
        <_>
          13 34 6 8 3.</_></rects>
      <tilted>0</tilted></_>
    <_>
      <rects>
        <_>
          8 30 3 9 -1.</_>
        <_>
          9 30 1 9 3.</_></rects>
      <tilted>0</tilted></_>
    <_>
      <rects>
        <_>
          8 41 2 2 -1.</_>
        <_>
          8 41 1 1 2.</_>
        <_>
          9 42 1 1 2.</_></rects>
      <tilted>0</tilted></_>
    <_>
      <rects>
        <_>
          9 0 12 27 -1.</_>
        <_>
          9 9 12 9 3.</_></rects>
      <tilted>0</tilted></_>
    <_>
      <rects>
        <_>
          9 13 18 6 -1.</_>
        <_>
          9 16 18 3 2.</_></rects>
      <tilted>0</tilted></_>
    <_>
      <rects>
        <_>
          9 19 35 12 -1.</_>
        <_>
          9 23 35 4 3.</_></rects>
      <tilted>0</tilted></_>
    <_>
      <rects>
        <_>
          9 36 12 6 -1.</_>
        <_>
          9 38 12 2 3.</_></rects>
      <tilted>0</tilted></_>
    <_>
      <rects>
        <_>
          10 0 23 26 -1.</_>
        <_>
          10 13 23 13 2.</_></rects>
      <tilted>0</tilted></_>
    <_>
      <rects>
        <_>
          10 11 12 16 -1.</_>
        <_>
          10 11 6 8 2.</_>
        <_>
          16 19 6 8 2.</_></rects>
      <tilted>0</tilted></_>
    <_>
      <rects>
        <_>
          10 17 32 12 -1.</_>
        <_>
          10 21 32 4 3.</_></rects>
      <tilted>0</tilted></_>
    <_>
      <rects>
        <_>
          10 19 4 1 -1.</_>
        <_>
          12 19 2 1 2.</_></rects>
      <tilted>0</tilted></_>
    <_>
      <rects>
        <_>
          10 19 14 4 -1.</_>
        <_>
          10 19 7 2 2.</_>
        <_>
          17 21 7 2 2.</_></rects>
      <tilted>0</tilted></_>
    <_>
      <rects>
        <_>
          10 23 6 2 -1.</_>
        <_>
          12 23 2 2 3.</_></rects>
      <tilted>0</tilted></_>
    <_>
      <rects>
        <_>
          10 25 11 2 -1.</_>
        <_>
          10 26 11 1 2.</_></rects>
      <tilted>0</tilted></_>
    <_>
      <rects>
        <_>
          11 17 30 18 -1.</_>
        <_>
          11 23 30 6 3.</_></rects>
      <tilted>0</tilted></_>
    <_>
      <rects>
        <_>
          11 19 25 21 -1.</_>
        <_>
          11 26 25 7 3.</_></rects>
      <tilted>0</tilted></_>
    <_>
      <rects>
        <_>
          11 29 14 18 -1.</_>
        <_>
          11 29 7 9 2.</_>
        <_>
          18 38 7 9 2.</_></rects>
      <tilted>0</tilted></_>
    <_>
      <rects>
        <_>
          12 1 6 29 -1.</_>
        <_>
          14 1 2 29 3.</_></rects>
      <tilted>0</tilted></_>
    <_>
      <rects>
        <_>
          12 15 6 33 -1.</_>
        <_>
          14 15 2 33 3.</_></rects>
      <tilted>0</tilted></_>
    <_>
      <rects>
        <_>
          12 22 14 14 -1.</_>
        <_>
          12 22 7 7 2.</_>
        <_>
          19 29 7 7 2.</_></rects>
      <tilted>0</tilted></_>
    <_>
      <rects>
        <_>
          12 43 2 2 -1.</_>
        <_>
          13 43 1 2 2.</_></rects>
      <tilted>0</tilted></_>
    <_>
      <rects>
        <_>
          12 43 10 4 -1.</_>
        <_>
          12 43 5 2 2.</_>
        <_>
          17 45 5 2 2.</_></rects>
      <tilted>0</tilted></_>
    <_>
      <rects>
        <_>
          13 5 26 3 -1.</_>
        <_>
          13 6 26 1 3.</_></rects>
      <tilted>0</tilted></_>
    <_>
      <rects>
        <_>
          13 7 6 8 -1.</_>
        <_>
          15 7 2 8 3.</_></rects>
      <tilted>0</tilted></_>
    <_>
      <rects>
        <_>
          13 16 26 18 -1.</_>
        <_>
          13 22 26 6 3.</_></rects>
      <tilted>0</tilted></_>
    <_>
      <rects>
        <_>
          13 25 6 7 -1.</_>
        <_>
          16 25 3 7 2.</_></rects>
      <tilted>0</tilted></_>
    <_>
      <rects>
        <_>
          13 27 8 4 -1.</_>
        <_>
          13 27 4 2 2.</_>
        <_>
          17 29 4 2 2.</_></rects>
      <tilted>0</tilted></_>
    <_>
      <rects>
        <_>
          14 25 13 22 -1.</_>
        <_>
          14 36 13 11 2.</_></rects>
      <tilted>0</tilted></_>
    <_>
      <rects>
        <_>
          15 5 2 26 -1.</_>
        <_>
          15 5 1 13 2.</_>
        <_>
          16 18 1 13 2.</_></rects>
      <tilted>0</tilted></_>
    <_>
      <rects>
        <_>
          15 11 2 12 -1.</_>
        <_>
          15 11 1 6 2.</_>
        <_>
          16 17 1 6 2.</_></rects>
      <tilted>0</tilted></_>
    <_>
      <rects>
        <_>
          15 13 18 18 -1.</_>
        <_>
          21 13 6 18 3.</_></rects>
      <tilted>0</tilted></_>
    <_>
      <rects>
        <_>
          15 15 3 7 -1.</_>
        <_>
          16 15 1 7 3.</_></rects>
      <tilted>0</tilted></_>
    <_>
      <rects>
        <_>
          15 15 15 32 -1.</_>
        <_>
          15 31 15 16 2.</_></rects>
      <tilted>0</tilted></_>
    <_>
      <rects>
        <_>
          15 20 22 30 -1.</_>
        <_>
          15 30 22 10 3.</_></rects>
      <tilted>0</tilted></_>
    <_>
      <rects>
        <_>
          15 22 1 12 -1.</_>
        <_>
          15 26 1 4 3.</_></rects>
      <tilted>0</tilted></_>
    <_>
      <rects>
        <_>
          15 22 6 1 -1.</_>
        <_>
          17 22 2 1 3.</_></rects>
      <tilted>0</tilted></_>
    <_>
      <rects>
        <_>
          15 39 12 3 -1.</_>
        <_>
          19 39 4 3 3.</_></rects>
      <tilted>0</tilted></_>
    <_>
      <rects>
        <_>
          15 44 6 4 -1.</_>
        <_>
          15 46 6 2 2.</_></rects>
      <tilted>0</tilted></_>
    <_>
      <rects>
        <_>
          16 0 4 10 -1.</_>
        <_>
          16 0 2 5 2.</_>
        <_>
          18 5 2 5 2.</_></rects>
      <tilted>0</tilted></_>
    <_>
      <rects>
        <_>
          16 2 11 3 -1.</_>
        <_>
          16 3 11 1 3.</_></rects>
      <tilted>0</tilted></_>
    <_>
      <rects>
        <_>
          16 7 9 15 -1.</_>
        <_>
          19 7 3 15 3.</_></rects>
      <tilted>0</tilted></_>
    <_>
      <rects>
        <_>
          16 16 10 20 -1.</_>
        <_>
          16 16 5 10 2.</_>
        <_>
          21 26 5 10 2.</_></rects>
      <tilted>0</tilted></_>
    <_>
      <rects>
        <_>
          16 20 18 7 -1.</_>
        <_>
          22 20 6 7 3.</_></rects>
      <tilted>0</tilted></_>
    <_>
      <rects>
        <_>
          16 20 20 18 -1.</_>
        <_>
          16 26 20 6 3.</_></rects>
      <tilted>0</tilted></_>
    <_>
      <rects>
        <_>
          17 9 10 3 -1.</_>
        <_>
          17 10 10 1 3.</_></rects>
      <tilted>0</tilted></_>
    <_>
      <rects>
        <_>
          17 17 18 10 -1.</_>
        <_>
          23 17 6 10 3.</_></rects>
      <tilted>0</tilted></_>
    <_>
      <rects>
        <_>
          18 6 10 3 -1.</_>
        <_>
          18 7 10 1 3.</_></rects>
      <tilted>0</tilted></_>
    <_>
      <rects>
        <_>
          18 7 16 3 -1.</_>
        <_>
          18 8 16 1 3.</_></rects>
      <tilted>0</tilted></_>
    <_>
      <rects>
        <_>
          18 23 12 8 -1.</_>
        <_>
          22 23 4 8 3.</_></rects>
      <tilted>0</tilted></_>
    <_>
      <rects>
        <_>
          18 35 3 10 -1.</_>
        <_>
          19 35 1 10 3.</_></rects>
      <tilted>0</tilted></_>
    <_>
      <rects>
        <_>
          19 9 30 39 -1.</_>
        <_>
          19 22 30 13 3.</_></rects>
      <tilted>0</tilted></_>
    <_>
      <rects>
        <_>
          21 17 9 18 -1.</_>
        <_>
          24 17 3 18 3.</_></rects>
      <tilted>0</tilted></_>
    <_>
      <rects>
        <_>
          21 23 24 10 -1.</_>
        <_>
          21 23 12 5 2.</_>
        <_>
          33 28 12 5 2.</_></rects>
      <tilted>0</tilted></_>
    <_>
      <rects>
        <_>
          22 12 14 12 -1.</_>
        <_>
          22 16 14 4 3.</_></rects>
      <tilted>0</tilted></_>
    <_>
      <rects>
        <_>
          22 17 4 33 -1.</_>
        <_>
          22 28 4 11 3.</_></rects>
      <tilted>0</tilted></_>
    <_>
      <rects>
        <_>
          23 7 7 3 -1.</_>
        <_>
          23 8 7 1 3.</_></rects>
      <tilted>0</tilted></_>
    <_>
      <rects>
        <_>
          23 35 4 4 -1.</_>
        <_>
          23 35 2 2 2.</_>
        <_>
          25 37 2 2 2.</_></rects>
      <tilted>0</tilted></_>
    <_>
      <rects>
        <_>
          24 0 24 32 -1.</_>
        <_>
          24 16 24 16 2.</_></rects>
      <tilted>0</tilted></_>
    <_>
      <rects>
        <_>
          24 19 9 24 -1.</_>
        <_>
          24 27 9 8 3.</_></rects>
      <tilted>0</tilted></_>
    <_>
      <rects>
        <_>
          24 21 16 10 -1.</_>
        <_>
          24 21 8 5 2.</_>
        <_>
          32 26 8 5 2.</_></rects>
      <tilted>0</tilted></_>
    <_>
      <rects>
        <_>
          24 40 7 3 -1.</_>
        <_>
          24 41 7 1 3.</_></rects>
      <tilted>0</tilted></_>
    <_>
      <rects>
        <_>
          25 6 2 28 -1.</_>
        <_>
          26 6 1 28 2.</_></rects>
      <tilted>0</tilted></_>
    <_>
      <rects>
        <_>
          25 18 15 12 -1.</_>
        <_>
          25 22 15 4 3.</_></rects>
      <tilted>0</tilted></_>
    <_>
      <rects>
        <_>
          26 7 2 3 -1.</_>
        <_>
          26 8 2 1 3.</_></rects>
      <tilted>0</tilted></_>
    <_>
      <rects>
        <_>
          26 10 6 2 -1.</_>
        <_>
          26 10 3 1 2.</_>
        <_>
          29 11 3 1 2.</_></rects>
      <tilted>0</tilted></_>
    <_>
      <rects>
        <_>
          26 12 5 3 -1.</_>
        <_>
          26 13 5 1 3.</_></rects>
      <tilted>0</tilted></_>
    <_>
      <rects>
        <_>
          26 26 21 16 -1.</_>
        <_>
          33 26 7 16 3.</_></rects>
      <tilted>0</tilted></_>
    <_>
      <rects>
        <_>
          26 42 8 2 -1.</_>
        <_>
          26 42 4 1 2.</_>
        <_>
          30 43 4 1 2.</_></rects>
      <tilted>0</tilted></_>
    <_>
      <rects>
        <_>
          27 14 21 36 -1.</_>
        <_>
          27 32 21 18 2.</_></rects>
      <tilted>0</tilted></_>
    <_>
      <rects>
        <_>
          27 44 5 6 -1.</_>
        <_>
          27 47 5 3 2.</_></rects>
      <tilted>0</tilted></_>
    <_>
      <rects>
        <_>
          28 0 22 12 -1.</_>
        <_>
          28 0 11 6 2.</_>
        <_>
          39 6 11 6 2.</_></rects>
      <tilted>0</tilted></_>
    <_>
      <rects>
        <_>
          28 16 4 3 -1.</_>
        <_>
          28 17 4 1 3.</_></rects>
      <tilted>0</tilted></_>
    <_>
      <rects>
        <_>
          28 19 6 12 -1.</_>
        <_>
          30 19 2 12 3.</_></rects>
      <tilted>0</tilted></_>
    <_>
      <rects>
        <_>
          29 15 12 18 -1.</_>
        <_>
          29 15 6 9 2.</_>
        <_>
          35 24 6 9 2.</_></rects>
      <tilted>0</tilted></_>
    <_>
      <rects>
        <_>
          29 16 14 10 -1.</_>
        <_>
          29 16 7 5 2.</_>
        <_>
          36 21 7 5 2.</_></rects>
      <tilted>0</tilted></_>
    <_>
      <rects>
        <_>
          29 18 6 6 -1.</_>
        <_>
          29 18 3 3 2.</_>
        <_>
          32 21 3 3 2.</_></rects>
      <tilted>0</tilted></_>
    <_>
      <rects>
        <_>
          29 23 12 2 -1.</_>
        <_>
          33 23 4 2 3.</_></rects>
      <tilted>0</tilted></_>
    <_>
      <rects>
        <_>
          29 23 15 21 -1.</_>
        <_>
          29 30 15 7 3.</_></rects>
      <tilted>0</tilted></_>
    <_>
      <rects>
        <_>
          30 5 9 30 -1.</_>
        <_>
          33 5 3 30 3.</_></rects>
      <tilted>0</tilted></_>
    <_>
      <rects>
        <_>
          30 5 12 2 -1.</_>
        <_>
          34 5 4 2 3.</_></rects>
      <tilted>0</tilted></_>
    <_>
      <rects>
        <_>
          30 12 6 6 -1.</_>
        <_>
          30 14 6 2 3.</_></rects>
      <tilted>0</tilted></_>
    <_>
      <rects>
        <_>
          30 18 3 10 -1.</_>
        <_>
          31 18 1 10 3.</_></rects>
      <tilted>0</tilted></_>
    <_>
      <rects>
        <_>
          30 20 13 21 -1.</_>
        <_>
          30 27 13 7 3.</_></rects>
      <tilted>0</tilted></_>
    <_>
      <rects>
        <_>
          30 28 4 10 -1.</_>
        <_>
          30 28 2 5 2.</_>
        <_>
          32 33 2 5 2.</_></rects>
      <tilted>0</tilted></_>
    <_>
      <rects>
        <_>
          32 14 12 26 -1.</_>
        <_>
          32 14 6 13 2.</_>
        <_>
          38 27 6 13 2.</_></rects>
      <tilted>0</tilted></_>
    <_>
      <rects>
        <_>
          32 23 8 4 -1.</_>
        <_>
          32 23 4 2 2.</_>
        <_>
          36 25 4 2 2.</_></rects>
      <tilted>0</tilted></_>
    <_>
      <rects>
        <_>
          32 23 12 4 -1.</_>
        <_>
          32 23 6 2 2.</_>
        <_>
          38 25 6 2 2.</_></rects>
      <tilted>0</tilted></_>
    <_>
      <rects>
        <_>
          32 25 2 18 -1.</_>
        <_>
          32 25 1 9 2.</_>
        <_>
          33 34 1 9 2.</_></rects>
      <tilted>0</tilted></_>
    <_>
      <rects>
        <_>
          33 4 16 15 -1.</_>
        <_>
          33 9 16 5 3.</_></rects>
      <tilted>0</tilted></_>
    <_>
      <rects>
        <_>
          33 20 10 8 -1.</_>
        <_>
          33 20 5 4 2.</_>
        <_>
          38 24 5 4 2.</_></rects>
      <tilted>0</tilted></_>
    <_>
      <rects>
        <_>
          34 16 1 9 -1.</_>
        <_>
          34 19 1 3 3.</_></rects>
      <tilted>0</tilted></_>
    <_>
      <rects>
        <_>
          34 24 10 18 -1.</_>
        <_>
          34 30 10 6 3.</_></rects>
      <tilted>0</tilted></_>
    <_>
      <rects>
        <_>
          35 23 3 26 -1.</_>
        <_>
          36 23 1 26 3.</_></rects>
      <tilted>0</tilted></_>
    <_>
      <rects>
        <_>
          35 37 15 2 -1.</_>
        <_>
          35 38 15 1 2.</_></rects>
      <tilted>0</tilted></_>
    <_>
      <rects>
        <_>
          37 0 2 44 -1.</_>
        <_>
          37 22 2 22 2.</_></rects>
      <tilted>0</tilted></_>
    <_>
      <rects>
        <_>
          38 4 2 2 -1.</_>
        <_>
          38 5 2 1 2.</_></rects>
      <tilted>0</tilted></_>
    <_>
      <rects>
        <_>
          38 23 4 1 -1.</_>
        <_>
          40 23 2 1 2.</_></rects>
      <tilted>0</tilted></_>
    <_>
      <rects>
        <_>
          38 31 4 3 -1.</_>
        <_>
          40 31 2 3 2.</_></rects>
      <tilted>0</tilted></_>
    <_>
      <rects>
        <_>
          39 40 3 10 -1.</_>
        <_>
          40 40 1 10 3.</_></rects>
      <tilted>0</tilted></_>
    <_>
      <rects>
        <_>
          40 0 10 28 -1.</_>
        <_>
          40 0 5 14 2.</_>
        <_>
          45 14 5 14 2.</_></rects>
      <tilted>0</tilted></_>
    <_>
      <rects>
        <_>
          40 1 6 20 -1.</_>
        <_>
          40 11 6 10 2.</_></rects>
      <tilted>0</tilted></_>
    <_>
      <rects>
        <_>
          40 24 10 16 -1.</_>
        <_>
          40 24 5 8 2.</_>
        <_>
          45 32 5 8 2.</_></rects>
      <tilted>0</tilted></_>
    <_>
      <rects>
        <_>
          42 26 3 5 -1.</_>
        <_>
          43 26 1 5 3.</_></rects>
      <tilted>0</tilted></_>
    <_>
      <rects>
        <_>
          42 36 2 1 -1.</_>
        <_>
          43 36 1 1 2.</_></rects>
      <tilted>0</tilted></_>
    <_>
      <rects>
        <_>
          45 11 4 16 -1.</_>
        <_>
          45 19 4 8 2.</_></rects>
      <tilted>0</tilted></_>
    <_>
      <rects>
        <_>
          47 10 3 4 -1.</_>
        <_>
          48 10 1 4 3.</_></rects>
      <tilted>0</tilted></_>
    <_>
      <rects>
        <_>
          47 24 3 14 -1.</_>
        <_>
          48 24 1 14 3.</_></rects>
      <tilted>0</tilted></_></features></cascade>
</opencv_storage>
